tree
version=v4
num_class=1
num_tree_per_iteration=1
label_index=0
max_feature_idx=13
objective=lambdarank
feature_names=position0 position1 position2 position3 position4 position5 position6 position7 position8 position9 bird_count cat_count dog_count tiger_count
feature_infos=[2:8] [0:7] [-1:7] [-1:7] [-1:6] [-1:7] [-1:8] [-1:8] none none [0:3] [0:3] [0:3] [0:3]
tree_sizes=570 559 566 572 564 566 573 569 571 574 563 573 563 574 572 566 573 573 571 571 464 575 469 576 463 464 582 471 466 465 578 469 465 470 467 470 469 576 579 574 574 471 465 470 583 573 471 681 467 573 681 679 464 463 573 569 575 571 579 571 470 680 574 572 577 581 469 680 679 579 575 578 574 578 578 580 693 581 579 576 582 584 579 583 584 584 577 576 583 581 579 580 581 574 693 580 582 578 575 587

Tree=0
num_leaves=4
num_cat=0
split_feature=10 4 4
split_gain=0.768688 2.13362 1.98578
threshold=1.0000000180025095e-35 1.0000000180025095e-35 1.0000000180025095e-35
decision_type=2 2 2
left_child=1 -1 -2
right_child=2 -3 -4
leaf_value=0.063108645511000774 -0.057365849528037 -0.12031186312800224 0.11235823460949146
leaf_weight=1.1345404135063293 1.2481171898543837 1.4380410369485614 1.5398371880874036
leaf_count=24 21 32 28
internal_value=-4.66918e-10 -0.0394211 0.0363758
internal_weight=5.36054 2.57258 2.78795
internal_count=105 56 49
is_linear=0
shrinkage=0.1


Tree=1
num_leaves=4
num_cat=0
split_feature=11 3 0
split_gain=1.68062 4.67134 0.235134
threshold=1.5000000000000002 4.0000000000000009 5.5000000000000009
decision_type=2 2 2
left_child=1 -1 -3
right_child=-2 2 -4
leaf_value=-0.053318765976718654 -0.034099654860808203 0.06136872728611701 0.099719391577316074
leaf_weight=4.4048116020858288 8.210821220651269 3.2032680865377188 3.1916044130921364
leaf_count=30 35 20 20
internal_value=2.47889e-09 0.0259254 0.0805091
internal_weight=19.0105 10.7997 6.39487
internal_count=105 70 40
is_linear=0
shrinkage=0.1


Tree=2
num_leaves=4
num_cat=0
split_feature=11 0 3
split_gain=6.26941 2.19789 0.0861032
threshold=1.0000000180025095e-35 4.0000000000000009 4.0000000000000009
decision_type=2 2 2
left_child=-1 -2 -3
right_child=1 2 -4
leaf_value=-0.10100379470231174 0.089350869403855213 -0.0087060435341758634 0.01296737170759934
leaf_weight=4.4923933278769281 4.8587570991367084 3.4926419332623482 3.8575033061206341
leaf_count=28 33 22 22
internal_value=-9.50071e-10 0.0371654 0.0026686
internal_weight=16.7013 12.2089 7.35015
internal_count=105 77 44
is_linear=0
shrinkage=0.1


Tree=3
num_leaves=4
num_cat=0
split_feature=12 6 13
split_gain=2.02936 0.842317 0.356553
threshold=1.0000000180025095e-35 3.5000000000000004 1.0000000180025095e-35
decision_type=2 2 2
left_child=-1 2 -2
right_child=1 -3 -4
leaf_value=-0.067973249555446133 -0.018823905519072467 0.059402540476597279 0.022194339316326937
leaf_weight=3.4247234761714944 4.1906997337937337 3.6450359150767317 4.2871533986181021
leaf_count=28 25 22 30
internal_value=7.30796e-10 0.0192025 0.00191855
internal_weight=15.5476 12.1229 8.47785
internal_count=105 77 55
is_linear=0
shrinkage=0.1


Tree=4
num_leaves=4
num_cat=0
split_feature=10 4 0
split_gain=1.94336 3.7754 2.8562
threshold=1.0000000180025095e-35 1.0000000180025095e-35 4.0000000000000009
decision_type=2 2 2
left_child=1 -1 -2
right_child=2 -3 -4
leaf_value=0.025569526001241141 -0.030831865491679766 -0.12475225859518113 0.093432899541389877
leaf_weight=3.9202567543834448 3.4706781022250652 2.9117409251630306 3.9602171517908573
leaf_count=24 21 32 28
internal_value=-4.13329e-09 -0.0384964 0.0353937
internal_weight=14.2629 6.832 7.4309
internal_count=105 56 49
is_linear=0
shrinkage=0.1


Tree=5
num_leaves=4
num_cat=0
split_feature=13 2 4
split_gain=1.9721 1.23265 0.441322
threshold=1.5000000000000002 2.5000000000000004 1.0000000180025095e-35
decision_type=2 2 2
left_child=1 2 -1
right_child=-2 -3 -4
leaf_value=-0.031600703979480969 -0.077894090774098659 0.076521478780532171 0.017115346886720905
leaf_weight=2.959653723984955 2.6134861521422872 2.7636045981198549 5.0029434245079756
leaf_count=24 21 24 36
internal_value=-3.44891e-09 0.0189792 -0.000992142
internal_weight=13.3397 10.7262 7.9626
internal_count=105 84 60
is_linear=0
shrinkage=0.1


Tree=6
num_leaves=4
num_cat=0
split_feature=10 4 5
split_gain=0.591752 6.15127 2.20196
threshold=1.0000000180025095e-35 -1.0000000180025095e-35 1.0000000180025095e-35
decision_type=2 2 2
left_child=1 -1 -2
right_child=2 -3 -4
leaf_value=0.10942185681197428 -0.042772165291175328 -0.10752065948523515 0.067372971989897001
leaf_weight=2.1142059583216906 3.2580762412399054 3.4232409801334143 4.097840704023838
leaf_count=16 28 40 21
internal_value=-4.24006e-09 -0.0246917 0.0185876
internal_weight=12.8934 5.53745 7.35592
internal_count=105 56 49
is_linear=0
shrinkage=0.1


Tree=7
num_leaves=4
num_cat=0
split_feature=10 4 0
split_gain=0.58046 4.66439 1.49669
threshold=1.0000000180025095e-35 -1.0000000180025095e-35 4.0000000000000009
decision_type=2 2 2
left_child=1 -1 -2
right_child=2 -3 -4
leaf_value=0.090213477019243177 -0.034180018883716558 -0.11004987815186858 0.056667693043431014
leaf_weight=1.9852643758058546 3.1837743036448956 2.8081162925809622 4.2132774833589792
leaf_count=16 21 40 28
internal_value=-3.5907e-10 -0.0271072 0.0175658
internal_weight=12.1904 4.79338 7.39705
internal_count=105 56 49
is_linear=0
shrinkage=0.1


Tree=8
num_leaves=4
num_cat=0
split_feature=10 4 0
split_gain=0.257406 3.37845 0.890659
threshold=1.0000000180025095e-35 -1.0000000180025095e-35 4.0000000000000009
decision_type=2 2 2
left_child=1 -1 -2
right_child=2 -3 -4
leaf_value=0.081796645307670307 -0.029111385275427788 -0.09727400917216894 0.042316816578523681
leaf_weight=1.8650273717939851 3.0591576173901558 2.4215553309768438 4.0659414734691381
leaf_count=16 21 40 28
internal_value=-2.58708e-09 -0.0193631 0.0116492
internal_weight=11.4117 4.28658 7.1251
internal_count=105 56 49
is_linear=0
shrinkage=0.1


Tree=9
num_leaves=4
num_cat=0
split_feature=10 4 0
split_gain=0.108392 2.55973 0.602845
threshold=1.0000000180025095e-35 -1.0000000180025095e-35 4.0000000000000009
decision_type=2 2 2
left_child=1 -1 -2
right_child=2 -3 -4
leaf_value=0.075150661636738225 -0.026445976240114751 -0.086438180352894106 0.033107207891800397
leaf_weight=1.7927798796445134 2.9791657291352749 2.1632256638258696 3.9581596851348877
leaf_count=16 21 40 28
internal_value=-2.43019e-09 -0.0132095 0.00753268
internal_weight=10.8933 3.95601 6.93733
internal_count=105 56 49
is_linear=0
shrinkage=0.1


Tree=10
num_leaves=4
num_cat=0
split_feature=12 3 0
split_gain=0.11906 0.637506 0.063353
threshold=1.5000000000000002 4.0000000000000009 5.5000000000000009
decision_type=2 2 2
left_child=1 -1 -3
right_child=-2 2 -4
leaf_value=-0.044910550226078379 0.018217940934005829 0.0034135921964423398 0.025752530694113058
leaf_weight=2.7591639002785087 2.6747066657990217 2.4905401207506657 2.5895006563514471
leaf_count=33 28 22 22
internal_value=-3.5587e-09 -0.0062159 0.0148006
internal_weight=10.5139 7.8392 5.08004
internal_count=105 77 44
is_linear=0
shrinkage=0.1


Tree=11
num_leaves=4
num_cat=0
split_feature=11 11 5
split_gain=1.37482 1.1706 0.00211804
threshold=1.0000000180025095e-35 1.5000000000000002 1.0000000180025095e-35
decision_type=2 2 2
left_child=-1 2 -2
right_child=1 -3 -4
leaf_value=-0.074822804571989074 0.044964285079814946 -0.030869784754524138 0.049022628346197528
leaf_weight=1.9795921873301274 2.4428553152829391 3.0723992306739092 2.7155150771141052
leaf_count=28 24 35 18
internal_value=-1.28269e-09 0.0179957 0.0471007
internal_weight=10.2104 8.23077 5.15837
internal_count=105 77 42
is_linear=0
shrinkage=0.1


Tree=12
num_leaves=4
num_cat=0
split_feature=12 3 0
split_gain=0.976183 1.36296 0.0561909
threshold=1.5000000000000002 4.0000000000000009 5.5000000000000009
decision_type=2 2 2
left_child=1 -1 -3
right_child=-2 2 -4
leaf_value=-0.077529787324465471 0.049112842838690995 0.0015960906690157149 0.023440322293346711
leaf_weight=2.60341711435467 2.8984719663858414 2.331641985103488 2.3791764620691538
leaf_count=33 28 22 22
internal_value=-1.91504e-10 -0.0194623 0.0126284
internal_weight=10.2127 7.31424 4.71082
internal_count=105 77 44
is_linear=0
shrinkage=0.1


Tree=13
num_leaves=4
num_cat=0
split_feature=11 11 5
split_gain=0.535332 0.908622 0.00249226
threshold=1.0000000180025095e-35 1.5000000000000002 1.0000000180025095e-35
decision_type=2 2 2
left_child=-1 2 -2
right_child=1 -3 -4
leaf_value=-0.0494176965458758 0.035074783878340503 -0.033894117707754953 0.039595909006136409
leaf_weight=1.7804685216397045 2.3128825537860394 2.8099409434944391 2.5786316003650427
leaf_count=28 24 35 18
internal_value=-4.51816e-10 0.0114247 0.0374582
internal_weight=9.48192 7.70146 4.89151
internal_count=105 77 42
is_linear=0
shrinkage=0.1


Tree=14
num_leaves=4
num_cat=0
split_feature=10 4 0
split_gain=0.42103 2.10255 0.715782
threshold=1.0000000180025095e-35 -1.0000000180025095e-35 4.0000000000000009
decision_type=2 2 2
left_child=1 -1 -2
right_child=2 -3 -4
leaf_value=0.065723057522257794 -0.022663517432800876 -0.093844764059217087 0.047217427270776428
leaf_weight=1.4056483712047341 2.6432084925472736 2.0016540922224522 3.2904301807284355
leaf_count=16 21 40 28
internal_value=-1.34599e-10 -0.0280167 0.0160881
internal_weight=9.34094 3.4073 5.93364
internal_count=105 56 49
is_linear=0
shrinkage=0.1


Tree=15
num_leaves=4
num_cat=0
split_feature=12 3 0
split_gain=0.271291 0.51099 0.0240736
threshold=1.5000000000000002 4.0000000000000009 5.5000000000000009
decision_type=2 2 2
left_child=1 -1 -3
right_child=-2 2 -4
leaf_value=-0.051510865879548597 0.027679122221533216 0.0015839480560091935 0.016581293601128307
leaf_weight=2.0921209901571274 2.5343965981155634 2.2333542425185442 2.0553017724305391
leaf_count=33 28 22 22
internal_value=-1.26664e-09 -0.0109939 0.0087713
internal_weight=8.91517 6.38078 4.28866
internal_count=105 77 44
is_linear=0
shrinkage=0.1


Tree=16
num_leaves=4
num_cat=0
split_feature=11 11 7
split_gain=0.371239 0.668425 0.357517
threshold=1.0000000180025095e-35 1.5000000000000002 1.0000000180025095e-35
decision_type=2 2 2
left_child=-1 2 -2
right_child=1 -3 -4
leaf_value=-0.04305947905679719 0.059453127198524386 -0.031579295325648814 0.0036122085012503719
leaf_weight=1.6288902238011358 2.380835022777319 2.5142320469021797 2.2115908525884151
leaf_count=28 24 35 18
internal_value=-2.98516e-09 0.0098695 0.0325616
internal_weight=8.73555 7.10666 4.59243
internal_count=105 77 42
is_linear=0
shrinkage=0.1


Tree=17
num_leaves=4
num_cat=0
split_feature=10 4 0
split_gain=0.376934 1.76272 0.617822
threshold=1.0000000180025095e-35 -1.0000000180025095e-35 4.0000000000000009
decision_type=2 2 2
left_child=1 -1 -2
right_child=2 -3 -4
leaf_value=0.062883366365651727 -0.02080407334890828 -0.091298098491625679 0.045980829183366531
leaf_weight=1.2556644007563593 2.5500883981585503 1.8109424281865356 3.0322942454367876
leaf_count=16 21 40 28
internal_value=-2.07822e-09 -0.0281664 0.0154728
internal_weight=8.64899 3.06661 5.58238
internal_count=105 56 49
is_linear=0
shrinkage=0.1


Tree=18
num_leaves=4
num_cat=0
split_feature=10 4 0
split_gain=0.273621 1.32608 0.48818
threshold=1.0000000180025095e-35 -1.0000000180025095e-35 4.0000000000000009
decision_type=2 2 2
left_child=1 -1 -2
right_child=2 -3 -4
leaf_value=0.053996097111859209 -0.01956715058026651 -0.084277547797160651 0.040359798051133738
leaf_weight=1.2105908282101157 2.4978198315948248 1.6239798767492173 2.982499098405242
leaf_count=16 21 40 28
internal_value=-2.07212e-09 -0.0252235 0.0130463
internal_weight=8.31489 2.83457 5.48032
internal_count=105 56 49
is_linear=0
shrinkage=0.1


Tree=19
num_leaves=4
num_cat=0
split_feature=10 4 0
split_gain=0.285386 0.860552 0.460341
threshold=1.0000000180025095e-35 -1.0000000180025095e-35 4.0000000000000009
decision_type=2 2 2
left_child=1 -1 -2
right_child=2 -3 -4
leaf_value=0.036125023478568129 -0.018769461243371432 -0.07772610361789542 0.039811855884771097
leaf_weight=1.2038812208920719 2.4562793336808681 1.4801556123420594 2.9553890880197287
leaf_count=16 21 40 28
internal_value=-7.9377e-10 -0.02666 0.0132226
internal_weight=8.09571 2.68404 5.41167
internal_count=105 56 49
is_linear=0
shrinkage=0.1


Tree=20
num_leaves=3
num_cat=0
split_feature=11 3
split_gain=0.246757 0.403194
threshold=1.5000000000000002 4.0000000000000009
decision_type=2 2
left_child=1 -1
right_child=-2 -3
leaf_value=-0.029435059554905708 -0.028292135284892314 0.028789045738812798
leaf_weight=1.7073356015607712 2.2127192839980125 3.9201741125434637
leaf_count=30 35 40
internal_value=-8.43392e-10 0.0111244
internal_weight=7.84023 5.62751
internal_count=105 70
is_linear=0
shrinkage=0.1


Tree=21
num_leaves=4
num_cat=0
split_feature=11 11 7
split_gain=0.383074 0.28556 0.391175
threshold=1.0000000180025095e-35 1.5000000000000002 1.0000000180025095e-35
decision_type=2 2 2
left_child=-1 2 -2
right_child=1 -3 -4
leaf_value=-0.046266142808374128 0.058183088312185917 -0.019326670350391671 -0.0036231353480668284
leaf_weight=1.4496624348685143 1.9761983081698415 2.0805876925587654 2.1252872496843338
leaf_count=28 24 35 18
internal_value=-5.73554e-10 0.0108492 0.0261566
internal_weight=7.63174 6.18207 4.10149
internal_count=105 77 42
is_linear=0
shrinkage=0.1


Tree=22
num_leaves=3
num_cat=0
split_feature=11 4
split_gain=0.167972 0.212406
threshold=1.5000000000000002 1.0000000180025095e-35
decision_type=2 2
left_child=1 -1
right_child=-2 -3
leaf_value=0.032541880451778964 -0.025284104185759777 -0.0072808134506396546
leaf_weight=2.2516639642417431 1.9460497219115493 3.3058459777384996
leaf_count=30 35 40
internal_value=1.03444e-09 0.00885363
internal_weight=7.50356 5.55751
internal_count=105 70
is_linear=0
shrinkage=0.1


Tree=23
num_leaves=4
num_cat=0
split_feature=11 11 7
split_gain=0.207182 0.144898 0.39618
threshold=1.0000000180025095e-35 1.5000000000000002 -1.0000000180025095e-35
decision_type=2 2 2
left_child=-1 2 -2
right_child=1 -3 -4
leaf_value=-0.035193780659394172 0.049961838064140757 -0.015153792269436693 -0.011476538636344423
leaf_weight=1.3660658691078422 2.0320154391229148 1.8828396424651144 2.1708677401766185
leaf_count=28 24 35 18
internal_value=-6.12401e-10 0.00789997 0.0182278
internal_weight=7.45179 6.08572 4.20288
internal_count=105 77 42
is_linear=0
shrinkage=0.1


Tree=24
num_leaves=3
num_cat=0
split_feature=12 3
split_gain=0.268244 0.204972
threshold=1.5000000000000002 4.0000000000000009
decision_type=2 2
left_child=1 -1
right_child=-2 -3
leaf_value=-0.036490021836212694 0.034087320880471915 0.0033838429554107897
leaf_weight=1.9857347421348093 1.76085839420557 3.6752704102545977
leaf_count=33 28 44
internal_value=-2.84377e-09 -0.0106029
internal_weight=7.42186 5.66101
internal_count=105 77
is_linear=0
shrinkage=0.1


Tree=25
num_leaves=3
num_cat=0
split_feature=11 4
split_gain=0.235649 0.12934
threshold=1.5000000000000002 1.0000000180025095e-35
decision_type=2 2
left_child=1 -1
right_child=-2 -3
leaf_value=0.029278892138791771 -0.031365481814900675 -0.0021505069323635427
leaf_weight=2.1722129043191671 1.8017033832147715 3.2962859040126204
leaf_count=30 35 40
internal_value=9.54355e-10 0.010334
internal_weight=7.2702 5.4685
internal_count=105 70
is_linear=0
shrinkage=0.1


Tree=26
num_leaves=4
num_cat=0
split_feature=11 10 4
split_gain=0.103294 0.163247 0.951451
threshold=1.0000000180025095e-35 1.0000000180025095e-35 -1.0000000180025095e-35
decision_type=2 2 2
left_child=-1 2 -2
right_child=1 -3 -4
leaf_value=-0.024621996331652671 0.063324563024537095 0.018433167663678685 -0.073181622439009442
leaf_weight=1.3775922078639267 0.87384361028671254 3.7147823665291071 1.2283399021252992
leaf_count=28 14 28 35
internal_value=-8.70539e-10 0.00583106 -0.0164382
internal_weight=7.19456 5.81697 2.10218
internal_count=105 77 49
is_linear=0
shrinkage=0.1


Tree=27
num_leaves=3
num_cat=0
split_feature=11 4
split_gain=0.0953065 0.131315
threshold=1.5000000000000002 1.0000000180025095e-35
decision_type=2 2
left_child=1 -1
right_child=-2 -3
leaf_value=0.026290495030437885 -0.020359721531063961 -0.0060841081407888575
leaf_weight=2.0721710473299026 1.7288826154544947 3.1687222477048635
leaf_count=30 35 40
internal_value=-2.12513e-09 0.00671633
internal_weight=6.96978 5.24089
internal_count=105 70
is_linear=0
shrinkage=0.1


Tree=28
num_leaves=3
num_cat=0
split_feature=12 3
split_gain=0.108451 0.133624
threshold=1.5000000000000002 4.0000000000000009
decision_type=2 2
left_child=1 -1
right_child=-2 -3
leaf_value=-0.028118750939558391 0.023048643856579745 0.0048013301816711091
leaf_weight=1.8970181299373505 1.5805257726460693 3.5225236359983683
leaf_count=33 28 44
internal_value=-8.04921e-10 -0.00672178
internal_weight=7.00007 5.41954
internal_count=105 77
is_linear=0
shrinkage=0.1


Tree=29
num_leaves=3
num_cat=0
split_feature=11 4
split_gain=0.174503 0.107795
threshold=1.5000000000000002 1.0000000180025095e-35
decision_type=2 2
left_child=1 -1
right_child=-2 -3
leaf_value=0.0268791590416208 -0.028254848964537616 -0.0024831935946665385
leaf_weight=2.0439557638019323 1.6614430313929913 3.2200456438586116
leaf_count=30 35 40
internal_value=-9.50594e-10 0.0089179
internal_weight=6.92544 5.264
internal_count=105 70
is_linear=0
shrinkage=0.1


Tree=30
num_leaves=4
num_cat=0
split_feature=11 10 4
split_gain=0.0760037 0.128822 0.799984
threshold=1.0000000180025095e-35 1.0000000180025095e-35 -1.0000000180025095e-35
decision_type=2 2 2
left_child=-1 2 -2
right_child=1 -3 -4
leaf_value=-0.021211850344052412 0.061017991047570934 0.016482078420571193 -0.069417300427218706
leaf_weight=1.355717168189585 0.80120779201388304 3.57227398827672 1.1381792072206738
leaf_count=28 14 28 35
internal_value=-1.129e-09 0.00521753 -0.0155313
internal_weight=6.86738 5.51166 1.93939
internal_count=105 77 49
is_linear=0
shrinkage=0.1


Tree=31
num_leaves=3
num_cat=0
split_feature=11 4
split_gain=0.096508 0.100382
threshold=1.5000000000000002 1.0000000180025095e-35
decision_type=2 2
left_child=1 -1
right_child=-2 -3
leaf_value=0.024554938805939265 -0.021215442673510644 -0.0043667997285394295
leaf_weight=1.9552680589258669 1.623508622869849 3.1070936322212219
leaf_count=30 35 40
internal_value=-3.32224e-09 0.00680383
internal_weight=6.68587 5.06236
internal_count=105 70
is_linear=0
shrinkage=0.1


Tree=32
num_leaves=3
num_cat=0
split_feature=12 3
split_gain=0.122615 0.112616
threshold=1.5000000000000002 4.0000000000000009
decision_type=2 2
left_child=1 -1
right_child=-2 -3
leaf_value=-0.027250232191024595 0.025446577152394685 0.0035539241942649314
leaf_weight=1.8224585540592668 1.4764097034931181 3.4026750521734357
leaf_count=33 28 44
internal_value=5.76731e-10 -0.00719016
internal_weight=6.70154 5.22513
internal_count=105 77
is_linear=0
shrinkage=0.1


Tree=33
num_leaves=3
num_cat=0
split_feature=11 4
split_gain=0.0936585 0.089919
threshold=1.5000000000000002 1.0000000180025095e-35
decision_type=2 2
left_child=1 -1
right_child=-2 -3
leaf_value=0.023506462754032249 -0.021586881540923905 -0.0038788602750474961
leaf_weight=1.9359811898320911 1.5421971222385762 3.1495969174429774
leaf_count=30 35 40
internal_value=-4.86544e-10 0.0065462
internal_weight=6.62778 5.08558
internal_count=105 70
is_linear=0
shrinkage=0.1


Tree=34
num_leaves=3
num_cat=0
split_feature=12 3
split_gain=0.0747637 0.0755321
threshold=1.5000000000000002 4.0000000000000009
decision_type=2 2
left_child=1 -1
right_child=-2 -3
leaf_value=-0.022426895156716153 0.020100428531663283 0.0030855053746486768
leaf_weight=1.7627774011343715 1.445466225966811 3.3962414991110563
leaf_count=33 28 44
internal_value=-1.81555e-09 -0.00563179
internal_weight=6.60449 5.15902
internal_count=105 77
is_linear=0
shrinkage=0.1


Tree=35
num_leaves=3
num_cat=0
split_feature=11 4
split_gain=0.0651657 0.0926143
threshold=1.5000000000000002 1.0000000180025095e-35
decision_type=2 2
left_child=1 -1
right_child=-2 -3
leaf_value=0.02269759123228263 -0.018309031447525805 -0.0051764719198135875
leaf_weight=1.9240201469510791 1.4993987064808605 3.1330391028895974
leaf_count=30 35 40
internal_value=-6.3921e-10 0.00542856
internal_weight=6.55646 5.05706
internal_count=105 70
is_linear=0
shrinkage=0.1


Tree=36
num_leaves=3
num_cat=0
split_feature=11 3
split_gain=0.0574916 0.11369
threshold=1.0000000180025095e-35 4.0000000000000009
decision_type=2 2
left_child=-1 -2
right_child=1 -3
leaf_value=-0.018123654414264032 -0.016482845286334435 0.015122333381704003
leaf_weight=1.3818851094692943 1.6876564435660837 3.4956359351053834
leaf_count=28 33 44
internal_value=-2.47187e-09 0.00483183
internal_weight=6.56518 5.18329
internal_count=105 77
is_linear=0
shrinkage=0.1


Tree=37
num_leaves=4
num_cat=0
split_feature=10 4 0
split_gain=0.0597044 1.05365 0.283051
threshold=1.0000000180025095e-35 -1.0000000180025095e-35 4.0000000000000009
decision_type=2 2 2
left_child=1 -1 -2
right_child=2 -3 -4
leaf_value=0.074170458327869421 -0.018783698609685501 -0.072654278107894182 0.031511886412667611
leaf_weight=0.81223808601498637 2.229198731482029 1.2272706711664794 2.2466109339147806
leaf_count=16 21 40 28
internal_value=-6.46105e-09 -0.0141811 0.00646193
internal_weight=6.51532 2.03951 4.47581
internal_count=105 56 49
is_linear=0
shrinkage=0.1


Tree=38
num_leaves=4
num_cat=0
split_feature=11 1 5
split_gain=0.0682071 0.105287 0.0105021
threshold=1.0000000180025095e-35 1.0000000180025095e-35 1.0000000180025095e-35
decision_type=2 2 2
left_child=-1 -2 -3
right_child=1 2 -4
leaf_value=-0.020486271818970132 -0.019340763646525878 0.0081871877877880608 0.01886835144337479
leaf_weight=1.2908546468243001 1.2860031602904198 1.7280402984470131 1.9699275251477955
leaf_count=28 22 33 22
internal_value=-1.1243e-09 0.00530597 0.0138771
internal_weight=6.27483 4.98397 3.69797
internal_count=105 77 55
is_linear=0
shrinkage=0.1


Tree=39
num_leaves=4
num_cat=0
split_feature=10 4 0
split_gain=0.0504537 0.860385 0.227749
threshold=1.0000000180025095e-35 -1.0000000180025095e-35 4.0000000000000009
decision_type=2 2 2
left_child=1 -1 -2
right_child=2 -3 -4
leaf_value=0.067965200586020749 -0.017000987345407434 -0.069425664407905027 0.02870188538313544
leaf_weight=0.76732659339904774 2.1746782753616571 1.1227076752111314 2.1867866506800056
leaf_count=16 21 40 28
internal_value=2.42086e-10 -0.013647 0.00591389
internal_weight=6.2515 1.89003 4.36146
internal_count=105 56 49
is_linear=0
shrinkage=0.1


Tree=40
num_leaves=4
num_cat=0
split_feature=11 0 5
split_gain=0.0573924 0.10232 0.00705435
threshold=1.0000000180025095e-35 6.5000000000000009 1.0000000180025095e-35
decision_type=2 2 2
left_child=-1 2 -2
right_child=1 -3 -4
leaf_value=-0.019338364317647301 0.0087641252420879844 -0.019573584905103285 0.017682836791567746
leaf_weight=1.224294940009713 1.6496547218412163 1.2617307715117929 1.917941929772496
leaf_count=28 33 22 22
internal_value=-3.51152e-09 0.00490251 0.0135588
internal_weight=6.05362 4.82933 3.5676
internal_count=105 77 55
is_linear=0
shrinkage=0.1


Tree=41
num_leaves=3
num_cat=0
split_feature=11 4
split_gain=0.0477946 0.114657
threshold=1.5000000000000002 1.0000000180025095e-35
decision_type=2 2
left_child=1 -1
right_child=-2 -3
leaf_value=0.025755823850607512 -0.016357113195000224 -0.0069297491881350802
leaf_weight=1.6772187352180479 1.3783942013978956 2.9801370399072766
leaf_count=30 35 40
internal_value=-3.16317e-10 0.00484106
internal_weight=6.03575 4.65736
internal_count=105 70
is_linear=0
shrinkage=0.1


Tree=42
num_leaves=3
num_cat=0
split_feature=12 3
split_gain=0.056902 0.0816294
threshold=1.5000000000000002 4.0000000000000009
decision_type=2 2
left_child=1 -1
right_child=-2 -3
leaf_value=-0.023923172754227621 0.018733744463404936 0.0040574047569702032
leaf_weight=1.5446900483220813 1.2778034359216688 3.2079290831461549
leaf_count=33 28 44
internal_value=3.7953e-09 -0.00503681
internal_weight=6.03042 4.75262
internal_count=105 77
is_linear=0
shrinkage=0.1


Tree=43
num_leaves=3
num_cat=0
split_feature=11 4
split_gain=0.0490994 0.101896
threshold=1.5000000000000002 1.0000000180025095e-35
decision_type=2 2
left_child=1 -1
right_child=-2 -3
leaf_value=0.024656752595836953 -0.016723687451273794 -0.0062302528285859268
leaf_weight=1.6698143128305671 1.3577217962592838 2.9639341868460178
leaf_count=30 35 40
internal_value=4.01816e-09 0.00490017
internal_weight=5.99147 4.63375
internal_count=105 70
is_linear=0
shrinkage=0.1


Tree=44
num_leaves=4
num_cat=0
split_feature=11 10 4
split_gain=0.0451778 0.0812985 0.425102
threshold=1.0000000180025095e-35 1.0000000180025095e-35 -1.0000000180025095e-35
decision_type=2 2 2
left_child=-1 2 -2
right_child=1 -3 -4
leaf_value=-0.017054165359556228 0.048486143857681137 0.013683932743750418 -0.05697653070597232
leaf_weight=1.2331262808293102 0.64437208324670747 3.1650861967355013 0.93940417282283328
leaf_count=28 14 28 35
internal_value=2.33532e-09 0.00442842 -0.0140682
internal_weight=5.98199 4.74886 1.58378
internal_count=105 77 49
is_linear=0
shrinkage=0.1


Tree=45
num_leaves=4
num_cat=0
split_feature=12 6 13
split_gain=0.0551382 0.0556065 0.300479
threshold=1.5000000000000002 3.5000000000000004 1.0000000180025095e-35
decision_type=2 2 2
left_child=1 2 -1
right_child=-2 -3 -4
leaf_value=-0.039780971923042127 0.018793459363850837 -0.020437760811173954 0.025566412411291362
leaf_weight=1.0810156688094141 1.2337090736255047 1.5518448296934364 2.0157086681574583
leaf_count=15 28 22 40
internal_value=2.21658e-09 -0.0049877 0.00275471
internal_weight=5.88228 4.64857 3.09672
internal_count=105 77 55
is_linear=0
shrinkage=0.1


Tree=46
num_leaves=3
num_cat=0
split_feature=11 4
split_gain=0.0792251 0.0825001
threshold=1.5000000000000002 1.0000000180025095e-35
decision_type=2 2
left_child=1 -1
right_child=-2 -3
leaf_value=0.025104911102830692 -0.020580367058892362 -0.0041870650116328538
leaf_weight=1.5600607674568889 1.3931650407612322 2.5061294827610254
leaf_count=30 35 40
internal_value=2.17931e-09 0.00705128
internal_weight=5.45936 4.06619
internal_count=105 70
is_linear=0
shrinkage=0.1


Tree=47
num_leaves=5
num_cat=0
split_feature=13 6 5 10
split_gain=0.0630112 0.658523 0.159906 0.0432201
threshold=1.0000000180025095e-35 3.5000000000000004 -1.0000000180025095e-35 1.5000000000000002
decision_type=2 2 2 2
left_child=3 2 -2 -1
right_child=1 -3 -4 -5
leaf_value=-0.00059684803472370197 0.050985358524167072 -0.075402343533324478 -0.0047946598530333659 0.026513962917005182
leaf_weight=1.2366812368854883 1.0274000708013775 1.013746043667197 1.0283426195383074 1.1211127759888766
leaf_count=21 27 18 18 21
internal_value=2.25654e-09 -0.0094436 0.0230826 0.0122941
internal_weight=5.42728 3.06949 2.05574 2.35779
internal_count=105 63 45 42
is_linear=0
shrinkage=0.1


Tree=48
num_leaves=3
num_cat=0
split_feature=11 4
split_gain=0.198239 0.155587
threshold=1.5000000000000002 1.0000000180025095e-35
decision_type=2 2
left_child=1 -1
right_child=-2 -3
leaf_value=0.035768377790484938 -0.031595311022844165 -0.0047031801531058626
leaf_weight=1.5920830778777602 1.4518176307901738 2.3549203146249056
leaf_count=30 35 40
internal_value=-2.79242e-09 0.0116216
internal_weight=5.39882 3.947
internal_count=105 70
is_linear=0
shrinkage=0.1


Tree=49
num_leaves=4
num_cat=0
split_feature=11 0 13
split_gain=0.100895 0.137316 0.085804
threshold=1.0000000180025095e-35 6.5000000000000009 1.0000000180025095e-35
decision_type=2 2 2
left_child=-1 2 -2
right_child=1 -3 -4
leaf_value=-0.027645070392710649 0.037479779622893103 -0.023193545813927633 0.0035740037395883234
leaf_weight=1.0536159640178082 1.2936068810522559 1.1064617438241837 1.7643935857340691
leaf_count=28 20 22 35
internal_value=-1.63755e-09 0.00699425 0.017917
internal_weight=5.21808 4.16446 3.058
internal_count=105 77 55
is_linear=0
shrinkage=0.1


Tree=50
num_leaves=5
num_cat=0
split_feature=10 4 0 2
split_gain=0.0407768 0.627138 0.214496 0.116799
threshold=1.0000000180025095e-35 -1.0000000180025095e-35 4.0000000000000009 2.5000000000000004
decision_type=2 2 2 2
left_child=1 -1 -2 -3
right_child=2 3 -4 -5
leaf_value=0.062824545407434026 -0.017665335037946497 -0.027568907205987703 0.031330263829060019 -0.094127992978375249
leaf_weight=0.67274129204452027 1.8427172340452673 0.52898077480494954 1.7346385475248096 0.52562189288437366
leaf_count=16 21 24 28 16
internal_value=-4.49887e-09 -0.0126173 0.00609234 -0.0607425
internal_weight=5.3047 1.72734 3.57736 1.0546
internal_count=105 56 49 40
is_linear=0
shrinkage=0.1


Tree=51
num_leaves=5
num_cat=0
split_feature=12 3 13 5
split_gain=0.0295743 0.0962263 0.657653 1.28845
threshold=1.5000000000000002 6.5000000000000009 1.0000000180025095e-35 -1.0000000180025095e-35
decision_type=2 2 2 2
left_child=1 2 -1 -4
right_child=-2 -3 3 -5
leaf_value=0.044661426819779346 0.013846537005297749 0.022264364593395501 0.043986555859297977 -0.12843915468675912
leaf_weight=1.1712139500305059 1.1862297849729655 1.0216810470446946 0.77782923169434071 0.97862980235367991
leaf_count=18 28 11 24 24
internal_value=-3.02849e-09 -0.00415896 -0.01338 -0.0520823
internal_weight=5.13558 3.94935 2.92767 1.75646
internal_count=105 77 66 48
is_linear=0
shrinkage=0.1


Tree=52
num_leaves=3
num_cat=0
split_feature=10 3
split_gain=0.0889016 0.455384
threshold=1.5000000000000002 4.0000000000000009
decision_type=2 2
left_child=1 -1
right_child=-2 -3
leaf_value=-0.047705552831329601 -0.023466694791240954 0.028462334678683861
leaf_weight=1.0857539772987368 1.2289692433550952 2.833089504390955
leaf_count=33 28 44
internal_value=3.46002e-10 0.00735928
internal_weight=5.14781 3.91884
internal_count=105 77
is_linear=0
shrinkage=0.1


Tree=53
num_leaves=3
num_cat=0
split_feature=10 3
split_gain=0.0522053 0.408821
threshold=1.5000000000000002 4.0000000000000009
decision_type=2 2
left_child=1 -1
right_child=-2 -3
leaf_value=-0.047097660592833317 -0.01832892670477948 0.025544792062907454
leaf_weight=1.0678233494982126 1.1899798847734926 2.8226119922474027
leaf_count=33 28 44
internal_value=1.2603e-10 0.00560633
internal_weight=5.08042 3.89044
internal_count=105 77
is_linear=0
shrinkage=0.1


Tree=54
num_leaves=4
num_cat=0
split_feature=10 4 0
split_gain=0.0479791 0.554878 0.146942
threshold=1.0000000180025095e-35 -1.0000000180025095e-35 4.0000000000000009
decision_type=2 2 2
left_child=1 -1 -2
right_child=2 -3 -4
leaf_value=0.059534834699791254 -0.01197173146764966 -0.059128071355852074 0.0300853243748423
leaf_weight=0.63717939518392075 1.8525890875607731 1.0328065594658253 1.5061229811981318
leaf_count=16 21 40 28
internal_value=1.86591e-09 -0.0138525 0.00688761
internal_weight=5.0287 1.66999 3.35871
internal_count=105 56 49
is_linear=0
shrinkage=0.1


Tree=55
num_leaves=4
num_cat=0
split_feature=10 3 5
split_gain=0.047807 0.37096 0.00580081
threshold=1.5000000000000002 4.0000000000000009 1.0000000180025095e-35
decision_type=2 2 2
left_child=1 -1 -3
right_child=-2 2 -4
leaf_value=-0.047000395921984739 -0.018068652768838366 0.029357874075168423 0.020141648968920792
leaf_weight=0.9930889913812283 1.1264873715117572 1.2345982678234579 1.5284002795815466
leaf_count=33 28 22 22
internal_value=-5.22162e-10 0.00541896 0.0242598
internal_weight=4.88257 3.75609 2.763
internal_count=105 77 44
is_linear=0
shrinkage=0.1


Tree=56
num_leaves=4
num_cat=0
split_feature=10 4 0
split_gain=0.0333755 0.462036 0.12587
threshold=1.0000000180025095e-35 -1.0000000180025095e-35 4.0000000000000009
decision_type=2 2 2
left_child=1 -1 -2
right_child=2 -3 -4
leaf_value=0.05599019880671894 -0.011749133279735802 -0.054501788765494642 0.027910114369842844
leaf_weight=0.61652585677802541 1.8057510964572432 0.98007471160963178 1.4372003730386493
leaf_count=16 21 40 28
internal_value=-6.4768e-10 -0.0118354 0.00582692
internal_weight=4.83955 1.5966 3.24295
internal_count=105 56 49
is_linear=0
shrinkage=0.1


Tree=57
num_leaves=4
num_cat=0
split_feature=10 3 5
split_gain=0.0325745 0.355045 0.00417828
threshold=1.5000000000000002 4.0000000000000009 1.0000000180025095e-35
decision_type=2 2 2
left_child=1 -1 -3
right_child=-2 2 -4
leaf_value=-0.048578768884012309 -0.015396407414382425 0.027155647359138571 0.019267576240310221
leaf_weight=0.9371796841733161 1.0640547405928371 1.2196201961487534 1.4942248566076157
leaf_count=33 28 22 22
internal_value=2.4869e-09 0.00448713 0.0228125
internal_weight=4.71508 3.65102 2.71385
internal_count=105 77 44
is_linear=0
shrinkage=0.1


Tree=58
num_leaves=4
num_cat=0
split_feature=10 4 0
split_gain=0.0224317 0.388523 0.109105
threshold=1.0000000180025095e-35 -1.0000000180025095e-35 4.0000000000000009
decision_type=2 2 2
left_child=1 -1 -2
right_child=2 -3 -4
leaf_value=0.052901230115449088 -0.011621569443294526 -0.050249170029445483 0.025905149387185029
leaf_weight=0.59959688596427418 1.7669289615005257 0.93389033386483788 1.3797370651736853
leaf_count=16 21 40 28
internal_value=1.24496e-09 -0.00991714 0.00483299
internal_weight=4.68015 1.53349 3.14667
internal_count=105 56 49
is_linear=0
shrinkage=0.1


Tree=59
num_leaves=4
num_cat=0
split_feature=10 3 5
split_gain=0.0207662 0.365032 0.00360631
threshold=1.5000000000000002 4.0000000000000009 1.0000000180025095e-35
decision_type=2 2 2
left_child=1 -1 -3
right_child=-2 2 -4
leaf_value=-0.052824511261074306 -0.01239517543241303 0.026018700921049517 0.01862887126165691
leaf_weight=0.86398721160367165 1.0432753833010791 1.2052856031805279 1.4607073683291671
leaf_count=33 28 22 22
internal_value=2.52775e-09 0.00366336 0.0219698
internal_weight=4.57326 3.52998 2.66599
internal_count=105 77 44
is_linear=0
shrinkage=0.1


Tree=60
num_leaves=3
num_cat=0
split_feature=11 4
split_gain=0.0206017 0.090021
threshold=1.5000000000000002 1.0000000180025095e-35
decision_type=2 2
left_child=1 -1
right_child=-2 -3
leaf_value=0.025957828202777679 -0.011852296069774469 -0.0079993518000744009
leaf_weight=1.1975445896387102 1.1090404144488273 2.2428037528879941
leaf_count=30 35 40
internal_value=1.12976e-09 0.00382074
internal_weight=4.54939 3.44035
internal_count=105 70
is_linear=0
shrinkage=0.1


Tree=61
num_leaves=5
num_cat=0
split_feature=12 3 13 4
split_gain=0.0270293 0.0656873 0.435323 0.909982
threshold=1.5000000000000002 6.5000000000000009 1.0000000180025095e-35 1.0000000180025095e-35
decision_type=2 2 2 2
left_child=1 2 -1 -4
right_child=-2 -3 3 -5
leaf_value=0.035178865213599191 0.01414737353898963 0.01788697228819279 0.027747819481244485 -0.13172769492671799
leaf_weight=1.0804550228640444 1.0399810550734399 0.96962891984730948 0.74463938269764163 0.68875447660684586
leaf_count=18 28 11 24 24
internal_value=-2.80907e-09 -0.00422366 -0.0127521 -0.0488811
internal_weight=4.52346 3.48348 2.51385 1.43339
internal_count=105 77 66 48
is_linear=0
shrinkage=0.1


Tree=62
num_leaves=4
num_cat=0
split_feature=12 10 13
split_gain=0.139136 0.23271 0.176
threshold=1.5000000000000002 1.0000000180025095e-35 1.0000000180025095e-35
decision_type=2 2 2
left_child=1 -1 -3
right_child=-2 2 -4
leaf_value=-0.054471533007802588 0.030006375643945482 -0.019963069010800607 0.033086397551057016
leaf_weight=0.87953762290999327 1.1528579741716383 1.3126459773629906 1.1944821467623112
leaf_count=35 28 21 21
internal_value=-9.42448e-10 -0.0102145 0.00531152
internal_weight=4.53952 3.38667 2.50713
internal_count=105 77 42
is_linear=0
shrinkage=0.1


Tree=63
num_leaves=4
num_cat=0
split_feature=13 5 0
split_gain=0.0940633 0.504826 0.0230712
threshold=1.0000000180025095e-35 -1.0000000180025095e-35 4.0000000000000009
decision_type=2 2 2
left_child=2 -2 -1
right_child=1 -3 -4
leaf_value=0.004352316284019316 0.053579473451291562 -0.04521002894834758 0.024806509949845075
leaf_weight=1.0720281526446345 0.7587198433466259 1.6254777917638419 1.135600635781884
leaf_count=18 27 36 24
internal_value=1.24989e-09 -0.0137724 0.0148739
internal_weight=4.59183 2.3842 2.20763
internal_count=105 63 42
is_linear=0
shrinkage=0.1


Tree=64
num_leaves=4
num_cat=0
split_feature=11 0 13
split_gain=0.0376225 0.21179 0.0207272
threshold=1.0000000180025095e-35 6.5000000000000009 1.0000000180025095e-35
decision_type=2 2 2
left_child=-1 2 -2
right_child=1 -3 -4
leaf_value=-0.019081807301370983 0.0090760470663032045 -0.037929852093178777 0.026875506685905638
leaf_weight=0.83496080338954914 1.2076232787221677 0.8804784147068857 1.4276391714811323
leaf_count=28 20 22 35
internal_value=-1.23688e-09 0.00453178 0.0187188
internal_weight=4.3507 3.51574 2.63526
internal_count=105 77 55
is_linear=0
shrinkage=0.1


Tree=65
num_leaves=4
num_cat=0
split_feature=11 0 10
split_gain=0.021073 0.211283 0.0485912
threshold=1.0000000180025095e-35 6.5000000000000009 1.0000000180025095e-35
decision_type=2 2 2
left_child=-1 2 -2
right_child=1 -3 -4
leaf_value=-0.014294265389444952 -0.00045385654569818514 -0.038812928988777161 0.027995079387873597
leaf_weight=0.83267384162172664 0.9383434662595399 0.88469010731205333 1.6669266475364564
leaf_count=28 35 22 20
internal_value=-1.08265e-09 0.00341048 0.0177486
internal_weight=4.32263 3.48996 2.60527
internal_count=105 77 55
is_linear=0
shrinkage=0.1


Tree=66
num_leaves=3
num_cat=0
split_feature=11 4
split_gain=0.014604 0.0715816
threshold=1.5000000000000002 1.0000000180025095e-35
decision_type=2 2
left_child=1 -1
right_child=-2 -3
leaf_value=0.023350768467494121 -0.010013880532999241 -0.0075614918375156064
leaf_weight=1.1568228267133238 1.0926278918050227 2.125406859908253
leaf_count=30 35 40
internal_value=2.32838e-09 0.00333354
internal_weight=4.37486 3.28223
internal_count=105 70
is_linear=0
shrinkage=0.1


Tree=67
num_leaves=5
num_cat=0
split_feature=12 3 13 4
split_gain=0.0106518 0.0776241 0.435652 0.963488
threshold=1.5000000000000002 6.5000000000000009 1.0000000180025095e-35 1.0000000180025095e-35
decision_type=2 2 2 2
left_child=1 2 -1 -4
right_child=-2 -3 3 -5
leaf_value=0.036573285210945931 0.0087925026821099265 0.022619176273317696 0.030068417681662626 -0.13715049544310776
leaf_weight=1.0497337458655245 1.0471115969121454 0.8829888692125677 0.72988421097397782 0.65269810752943158
leaf_count=18 28 11 24 24
internal_value=4.25908e-09 -0.00277703 -0.0119965 -0.0488733
internal_weight=4.36242 3.3153 2.43232 1.38258
internal_count=105 77 66 48
is_linear=0
shrinkage=0.1


Tree=68
num_leaves=5
num_cat=0
split_feature=13 3 4 1
split_gain=0.0989599 0.563 0.871819 0.0560685
threshold=1.0000000180025095e-35 6.5000000000000009 -1.0000000180025095e-35 3.0000000000000004
decision_type=2 2 2 2
left_child=3 2 -2 -1
right_child=1 -3 -4 -5
leaf_value=0.00076545483287814454 0.074617857168996812 0.09324417595613238 -0.085600619533877625 -0.032611312276616344
leaf_weight=1.0180669678375127 0.57552763167768728 0.63987787347286929 0.82858493039384495 0.99540362320840348
leaf_count=24 18 9 36 18
internal_value=1.51492e-09 0.0155001 -0.0199291 -0.0157351
internal_weight=4.05746 2.04399 1.40411 2.01347
internal_count=105 63 54 42
is_linear=0
shrinkage=0.1


Tree=69
num_leaves=4
num_cat=0
split_feature=11 0 10
split_gain=0.0613806 0.149409 0.0267459
threshold=1.0000000180025095e-35 6.5000000000000009 1.0000000180025095e-35
decision_type=2 2 2
left_child=-1 2 -2
right_child=1 -3 -4
leaf_value=-0.025156256895094899 0.0056387555862949454 -0.030390983925758442 0.028270912511094155
leaf_weight=0.77309810416772995 0.83587039262056428 0.80938479490578163 1.3912884509190915
leaf_count=28 35 22 20
internal_value=2.1299e-09 0.00640474 0.0197769
internal_weight=3.80964 3.03654 2.22716
internal_count=105 77 55
is_linear=0
shrinkage=0.1


Tree=70
num_leaves=4
num_cat=0
split_feature=10 3 10
split_gain=0.0556489 0.285027 0.220135
threshold=1.5000000000000002 4.0000000000000009 1.0000000180025095e-35
decision_type=2 2 2
left_child=1 -1 -3
right_child=-2 2 -4
leaf_value=-0.04531465604527804 -0.021006950828471017 -0.010259124796787129 0.055306538783671345
leaf_weight=0.76164616411551911 0.94570845738053311 0.92056922987103473 1.1540120504796505
leaf_count=33 28 32 12
internal_value=-1.95773e-09 0.00700453 0.0262126
internal_weight=3.78194 2.83623 2.07458
internal_count=105 77 44
is_linear=0
shrinkage=0.1


Tree=71
num_leaves=4
num_cat=0
split_feature=11 13 4
split_gain=0.0650319 0.100236 0.240388
threshold=1.5000000000000002 1.0000000180025095e-35 1.0000000180025095e-35
decision_type=2 2 2
left_child=1 -1 -3
right_child=-2 2 -4
leaf_value=-0.016022799280115373 -0.020688643627132217 0.065030543581234876 -0.011399900368120053
leaf_weight=1.0401611793786294 1.0839182767085729 0.75874711014330365 0.89918745821341872
leaf_count=21 35 21 28
internal_value=-8.37251e-10 0.00831134 0.0235782
internal_weight=3.78201 2.6981 1.65793
internal_count=105 70 49
is_linear=0
shrinkage=0.1


Tree=72
num_leaves=4
num_cat=0
split_feature=10 3 10
split_gain=0.0308963 0.263608 0.210884
threshold=1.5000000000000002 4.0000000000000009 1.0000000180025095e-35
decision_type=2 2 2
left_child=1 -1 -3
right_child=-2 2 -4
leaf_value=-0.045171294930593249 -0.016051846483834422 -0.011761909051595009 0.053013905605969636
leaf_weight=0.7567189550027259 0.90525293815881003 0.91106445342302333 1.1210041902959347
leaf_count=33 28 32 12
internal_value=-8.66645e-10 0.0052105 0.0239721
internal_weight=3.69404 2.78879 2.03207
internal_count=105 77 44
is_linear=0
shrinkage=0.1


Tree=73
num_leaves=4
num_cat=0
split_feature=11 0 13
split_gain=0.0355438 0.136322 0.0116813
threshold=1.0000000180025095e-35 6.5000000000000009 1.0000000180025095e-35
decision_type=2 2 2
left_child=-1 2 -2
right_child=1 -3 -4
leaf_value=-0.019640782268567577 0.026728199929931334 -0.030836586134246211 0.011637990413182975
leaf_weight=0.7327035162597898 0.93022980913519937 0.77123733283951867 1.1436536982655523
leaf_count=28 20 22 35
internal_value=6.76791e-10 0.00505809 0.0184066
internal_weight=3.57782 2.84512 2.07388
internal_count=105 77 55
is_linear=0
shrinkage=0.1


Tree=74
num_leaves=4
num_cat=0
split_feature=11 0 7
split_gain=0.0307802 0.131823 0.012011
threshold=1.0000000180025095e-35 6.5000000000000009 -1.0000000180025095e-35
decision_type=2 2 2
left_child=-1 2 -2
right_child=1 -3 -4
leaf_value=-0.018379183124077318 0.0091889809866082684 -0.030622232915841086 0.024511310699210115
leaf_weight=0.7261332664638761 0.91137103131041031 0.77121784770861257 1.166301384568214
leaf_count=28 33 22 22
internal_value=-6.02425e-10 0.00468454 0.0177902
internal_weight=3.57502 2.84889 2.07767
internal_count=105 77 55
is_linear=0
shrinkage=0.1


Tree=75
num_leaves=4
num_cat=0
split_feature=11 0 13
split_gain=0.0250342 0.127578 0.0102629
threshold=1.0000000180025095e-35 6.5000000000000009 1.0000000180025095e-35
decision_type=2 2 2
left_child=-1 2 -2
right_child=1 -3 -4
leaf_value=-0.016710833731311558 0.024881261673682369 -0.030533556245011563 0.010757382411753436
leaf_weight=0.71650524856522713 0.93075155839324075 0.77157989609986533 1.1502988403663037
leaf_count=28 20 22 35
internal_value=-1.79395e-10 0.00419732 0.0170743
internal_weight=3.56914 2.85263 2.08105
internal_count=105 77 55
is_linear=0
shrinkage=0.1


Tree=76
num_leaves=5
num_cat=0
split_feature=13 4 1 5
split_gain=0.0310566 0.278666 0.104151 0.0127486
threshold=1.0000000180025095e-35 -1.0000000180025095e-35 3.0000000000000004 1.0000000180025095e-35
decision_type=2 2 2 2
left_child=3 -2 -3 -1
right_child=1 2 -4 -5
leaf_value=-0.00061710676273234568 0.068258677948020138 -0.049475857838981563 0.0086409232828056227 -0.017602395457812701
leaf_weight=0.85321916267275832 0.55423335172235955 0.55036385823041178 0.70127811888232827 0.91661802772432566
leaf_count=24 18 27 18 18
internal_value=5.46962e-10 0.00922611 -0.0169138 -0.00941397
internal_weight=3.57571 1.80588 1.25164 1.76984
internal_count=105 63 45 42
is_linear=0
shrinkage=0.1


Tree=77
num_leaves=4
num_cat=0
split_feature=13 5 5
split_gain=0.0201763 0.17499 0.0141918
threshold=1.0000000180025095e-35 -1.0000000180025095e-35 1.0000000180025095e-35
decision_type=2 2 2
left_child=2 -2 -1
right_child=1 -3 -4
leaf_value=0.0016321503300431993 0.047324814440585269 -0.017076830520122578 -0.01639881818863859
leaf_weight=0.84866256732493661 0.68169203028082836 1.107124683447182 0.89884010702371597
leaf_count=24 27 36 18
internal_value=-6.64982e-10 0.0074657 -0.0076422
internal_weight=3.53632 1.78882 1.7475
internal_count=105 63 42
is_linear=0
shrinkage=0.1


Tree=78
num_leaves=4
num_cat=0
split_feature=12 13 6
split_gain=0.0259845 0.055013 0.0736612
threshold=1.5000000000000002 1.0000000180025095e-35 1.0000000180025095e-35
decision_type=2 2 2
left_child=1 -1 -3
right_child=-2 2 -4
leaf_value=-0.023464448923464942 0.014142575544235488 0.035812572196540542 -0.009588475932353277
leaf_weight=1.0058117546141154 0.94857218209654082 0.55398732097819436 1.0068488647229967
leaf_count=21 28 24 32
internal_value=6.6235e-12 -0.00522676 0.00652571
internal_weight=3.51522 2.56665 1.56084
internal_count=105 77 56
is_linear=0
shrinkage=0.1


Tree=79
num_leaves=4
num_cat=0
split_feature=10 3 10
split_gain=0.0166116 0.256803 0.112608
threshold=1.5000000000000002 4.0000000000000009 1.0000000180025095e-35
decision_type=2 2 2
left_child=1 -1 -3
right_child=-2 2 -4
leaf_value=-0.045476230464987472 -0.012112463037967177 -0.0025523058505024371 0.046422846910912363
leaf_weight=0.75231743371114213 0.85516555886715639 0.87846937775611844 1.0084011275321245
leaf_count=33 28 32 12
internal_value=1.83567e-09 0.00392476 0.0236215
internal_weight=3.49435 2.63919 1.88687
internal_count=105 77 44
is_linear=0
shrinkage=0.1


Tree=80
num_leaves=4
num_cat=0
split_feature=12 5 4
split_gain=0.020118 0.0376661 0.0207905
threshold=1.5000000000000002 1.0000000180025095e-35 1.0000000180025095e-35
decision_type=2 2 2
left_child=1 2 -1
right_child=-2 -3 -4
leaf_value=-0.0056884439944588959 0.012460188897773779 0.0062975726174379206 -0.033033601519927361
leaf_weight=0.60079550184309549 0.94226806703954924 1.3931284821592269 0.51755086285993457
leaf_count=22 28 33 22
internal_value=1.55052e-09 -0.00467488 -0.0183433
internal_weight=3.45374 2.51147 1.11835
internal_count=105 77 44
is_linear=0
shrinkage=0.1


Tree=81
num_leaves=4
num_cat=0
split_feature=12 13 5
split_gain=0.00981378 0.0314613 0.0366431
threshold=1.5000000000000002 1.0000000180025095e-35 1.0000000180025095e-35
decision_type=2 2 2
left_child=1 -1 -3
right_child=-2 2 -4
leaf_value=-0.017279022167596633 0.0086054836923884527 -0.011125569517378316 0.019928873281711453
leaf_weight=0.97977177985012609 0.95887928083538998 0.70248278602957703 0.82761328248307109
leaf_count=21 28 32 24
internal_value=2.51709e-10 -0.00328767 0.00567146
internal_weight=3.46875 2.50987 1.5301
internal_count=105 77 56
is_linear=0
shrinkage=0.1


Tree=82
num_leaves=4
num_cat=0
split_feature=10 3 10
split_gain=0.00634982 0.236373 0.0773226
threshold=1.5000000000000002 4.0000000000000009 1.0000000180025095e-35
decision_type=2 2 2
left_child=1 -1 -3
right_child=-2 2 -4
leaf_value=-0.04500155453191676 -0.0075489734410698704 0.00018324390771281153 0.040871094256230277
leaf_weight=0.75016358355060297 0.84314510691910971 0.89427956845611312 0.97769676148891449
leaf_count=33 28 32 12
internal_value=9.91045e-11 0.00242736 0.0214337
internal_weight=3.46529 2.62214 1.87198
internal_count=105 77 44
is_linear=0
shrinkage=0.1


Tree=83
num_leaves=4
num_cat=0
split_feature=10 4 5
split_gain=0.0307949 0.41999 0.413899
threshold=1.0000000180025095e-35 -1.0000000180025095e-35 1.0000000180025095e-35
decision_type=2 2 2
left_child=1 -1 -2
right_child=2 -3 -4
leaf_value=0.081141662561884667 -0.061320287919055097 -0.033756273273071943 0.028068427640321542
leaf_weight=0.52860564924776576 0.85798121429979834 0.79902491718530655 1.3072273042052982
leaf_count=16 28 40 21
internal_value=-6.66907e-10 0.0119912 -0.00735257
internal_weight=3.49284 1.32763 2.16521
internal_count=105 56 49
is_linear=0
shrinkage=0.1


Tree=84
num_leaves=4
num_cat=0
split_feature=12 5 4
split_gain=0.00568669 0.0289175 0.0285579
threshold=1.5000000000000002 1.0000000180025095e-35 1.0000000180025095e-35
decision_type=2 2 2
left_child=1 2 -1
right_child=-2 -3 -4
leaf_value=0.0014155509990151196 0.0066280088006757795 0.0071266280168514641 -0.031640628246211493
leaf_weight=0.52451605629175968 0.93126587569713581 1.3423595968633888 0.5208941325545311
leaf_count=22 28 33 22
internal_value=-7.36576e-10 -0.00258502 -0.0150553
internal_weight=3.31904 2.38777 1.04541
internal_count=105 77 44
is_linear=0
shrinkage=0.1


Tree=85
num_leaves=4
num_cat=0
split_feature=12 5 4
split_gain=0.00758533 0.0310449 0.0327175
threshold=1.5000000000000002 1.0000000180025095e-35 1.0000000180025095e-35
decision_type=2 2 2
left_child=1 2 -1
right_child=-2 -3 -4
leaf_value=0.0019070910751712864 0.0075894662788736468 0.0071038407146896028 -0.033286902236053233
leaf_weight=0.52468339912593431 0.94480046816170205 1.342336533591151 0.53194786421954632
leaf_count=22 28 33 22
internal_value=-3.91676e-10 -0.00298901 -0.0158109
internal_weight=3.34377 2.39897 1.05663
internal_count=105 77 44
is_linear=0
shrinkage=0.1


Tree=86
num_leaves=4
num_cat=0
split_feature=10 1 10
split_gain=0.0417109 0.12432 0.0962578
threshold=2.5000000000000004 3.0000000000000004 1.0000000180025095e-35
decision_type=2 2 2
left_child=1 2 -1
right_child=-2 -3 -4
leaf_value=-0.044547492928758467 -0.023005299690172797 0.025584948191513308 0.0096820868653865102
leaf_weight=0.64353241468779809 0.63955357950180758 1.4434872651472686 0.66610951907932758
leaf_count=32 21 36 16
internal_value=-9.95096e-11 0.00534414 -0.0169653
internal_weight=3.39268 2.75313 1.30964
internal_count=105 84 48
is_linear=0
shrinkage=0.1


Tree=87
num_leaves=4
num_cat=0
split_feature=10 1 10
split_gain=0.0457526 0.127718 0.0591162
threshold=2.5000000000000004 3.0000000000000004 1.0000000180025095e-35
decision_type=2 2 2
left_child=1 2 -1
right_child=-2 -3 -4
leaf_value=-0.039060942541860925 -0.024012044630251091 0.026048805395179439 0.0037963219571358294
leaf_weight=0.63261772156693108 0.64248968195170153 1.4453955963253973 0.65518903825432062
leaf_count=32 21 36 16
internal_value=5.18158e-10 0.00564448 -0.0172567
internal_weight=3.37569 2.7332 1.28781
internal_count=105 84 48
is_linear=0
shrinkage=0.1


Tree=88
num_leaves=4
num_cat=0
split_feature=12 5 4
split_gain=0.0183962 0.0348992 0.0345883
threshold=1.5000000000000002 1.0000000180025095e-35 1.0000000180025095e-35
decision_type=2 2 2
left_child=1 2 -1
right_child=-2 -3 -4
leaf_value=-0.00021377346992414644 0.011840101823809252 0.006230422739822241 -0.036373358064385949
leaf_weight=0.53177058976143665 0.9392090756446122 1.3065020798239855 0.52639390109106898
leaf_count=22 28 33 22
internal_value=-2.82769e-10 -0.00470271 -0.0182017
internal_weight=3.30388 2.36467 1.05816
internal_count=105 77 44
is_linear=0
shrinkage=0.1


Tree=89
num_leaves=4
num_cat=0
split_feature=12 5 4
split_gain=0.0156095 0.0341876 0.0363012
threshold=1.5000000000000002 1.0000000180025095e-35 1.0000000180025095e-35
decision_type=2 2 2
left_child=1 2 -1
right_child=-2 -3 -4
leaf_value=0.00088674309760046791 0.010826415752893564 0.0065101495932279501 -0.03599375611989953
leaf_weight=0.53208913002163238 0.9509002286940812 1.3067086925730107 0.53546885680407286
leaf_count=22 28 33 22
internal_value=3.61044e-10 -0.00433601 -0.0176119
internal_weight=3.32517 2.37427 1.06756
internal_count=105 77 44
is_linear=0
shrinkage=0.1


Tree=90
num_leaves=4
num_cat=0
split_feature=12 5 4
split_gain=0.0354368 0.045316 0.0569309
threshold=1.5000000000000002 1.0000000180025095e-35 1.0000000180025095e-35
decision_type=2 2 2
left_child=1 2 -1
right_child=-2 -3 -4
leaf_value=0.0018890282844196183 0.015975692695561702 0.0060237057054188595 -0.043720835384141635
leaf_weight=0.53254934120923347 0.9848260567523538 1.307310400297865 0.56298396829515696
leaf_count=22 28 33 22
internal_value=8.63406e-10 -0.00654777 -0.0215494
internal_weight=3.38767 2.40284 1.09553
internal_count=105 77 44
is_linear=0
shrinkage=0.1


Tree=91
num_leaves=4
num_cat=0
split_feature=11 0 13
split_gain=0.0237772 0.187216 0.0513269
threshold=1.0000000180025095e-35 6.5000000000000009 1.0000000180025095e-35
decision_type=2 2 2
left_child=-1 2 -2
right_child=1 -3 -4
leaf_value=-0.015916046529062627 0.037062324019876899 -0.039580897251540757 0.0047525972524448184
leaf_weight=0.73640841222368214 0.94510612823069129 0.71190087124705304 1.0248214569874106
leaf_count=28 20 22 35
internal_value=2.16688e-09 0.00437042 0.0202537
internal_weight=3.41824 2.68183 1.96993
internal_count=105 77 55
is_linear=0
shrinkage=0.1


Tree=92
num_leaves=4
num_cat=0
split_feature=12 5 4
split_gain=0.0317583 0.0452614 0.0622074
threshold=1.5000000000000002 1.0000000180025095e-35 1.0000000180025095e-35
decision_type=2 2 2
left_child=1 2 -1
right_child=-2 -3 -4
leaf_value=0.0037054121871972338 0.014910750510856358 0.0062381112204733819 -0.043770034656010523
leaf_weight=0.52767682820558615 1.0100754201412199 1.3324098906014112 0.57865988975390792
leaf_count=22 28 33 22
internal_value=1.15189e-10 -0.00617571 -0.0211262
internal_weight=3.44882 2.43875 1.10634
internal_count=105 77 44
is_linear=0
shrinkage=0.1


Tree=93
num_leaves=4
num_cat=0
split_feature=11 3 4
split_gain=0.455273 0.418867 0.102742
threshold=1.0000000180025095e-35 5.5000000000000009 5.0000000000000009
decision_type=2 2 2
left_child=-1 2 -2
right_child=1 -3 -4
leaf_value=-0.059414875073418819 0.0040525771443521742 0.061200086119495303 -0.049899422392114368
leaf_weight=0.96352638769894872 0.96398116461932681 1.3256231709383426 0.55686142132617533
leaf_count=28 33 22 22
internal_value=-7.80305e-10 0.0201119 -0.0157021
internal_weight=3.80999 2.84647 1.52084
internal_count=105 77 55
is_linear=0
shrinkage=0.1


Tree=94
num_leaves=5
num_cat=0
split_feature=13 4 3 5
split_gain=0.0255814 0.32283 0.0579937 0.0152569
threshold=1.0000000180025095e-35 -1.0000000180025095e-35 5.5000000000000009 1.0000000180025095e-35
decision_type=2 2 2 2
left_child=3 -2 -3 -1
right_child=1 2 -4 -5
leaf_value=0.00056064292606971774 0.075686311996176578 -0.045147381863274251 -0.00057670462830974466 -0.017966537672884069
leaf_weight=0.92130452021956466 0.50625857058912505 0.50965767120942451 0.68336301483213902 0.85879420395940542
leaf_count=24 18 27 18 18
internal_value=1.30071e-10 0.00877609 -0.0196173 -0.00837765
internal_weight=3.47938 1.69928 1.19302 1.7801
internal_count=105 63 45 42
is_linear=0
shrinkage=0.1


Tree=95
num_leaves=4
num_cat=0
split_feature=10 3 10
split_gain=0.00436067 0.296718 0.0566263
threshold=1.5000000000000002 4.0000000000000009 1.0000000180025095e-35
decision_type=2 2 2
left_child=1 -1 -3
right_child=-2 2 -4
leaf_value=-0.054088183327602249 -0.0063163775755366988 0.0055105926065919927 0.040421165364240501
leaf_weight=0.68738007661886591 0.82540337927639473 0.93772160261869408 0.92093565128743649
leaf_count=33 28 32 12
internal_value=-1.48737e-09 0.00204771 0.0228082
internal_weight=3.37144 2.54604 1.85866
internal_count=105 77 44
is_linear=0
shrinkage=0.1


Tree=96
num_leaves=4
num_cat=0
split_feature=12 5 4
split_gain=0.0103868 0.0388303 0.0348578
threshold=1.5000000000000002 1.0000000180025095e-35 1.0000000180025095e-35
decision_type=2 2 2
left_child=1 2 -1
right_child=-2 -3 -4
leaf_value=0.0011498279777442106 0.0087653722816705502 0.0081631596040293748 -0.034380544661867955
leaf_weight=0.53186094202101297 0.96553701348602761 1.3068687515333293 0.57424965593963861
leaf_count=22 28 33 22
internal_value=6.58139e-10 -0.0035074 -0.0172962
internal_weight=3.37852 2.41298 1.10611
internal_count=105 77 44
is_linear=0
shrinkage=0.1


Tree=97
num_leaves=4
num_cat=0
split_feature=11 0 11
split_gain=0.0147474 0.187727 0.0187032
threshold=1.0000000180025095e-35 6.5000000000000009 1.5000000000000002
decision_type=2 2 2
left_child=-1 2 -2
right_child=1 -3 -4
leaf_value=0.012948854123234885 0.019749767986150343 -0.048033952816947549 -0.00061495079187257203
leaf_weight=0.69672586582601104 1.2565136048942807 0.69544680789113034 0.70346671761944879
leaf_count=28 30 22 25
internal_value=-8.36306e-10 -0.0033975 0.0124406
internal_weight=3.35215 2.65543 1.95998
internal_count=105 77 55
is_linear=0
shrinkage=0.1


Tree=98
num_leaves=4
num_cat=0
split_feature=11 0 13
split_gain=0.14857 0.403214 0.016212
threshold=1.0000000180025095e-35 6.5000000000000009 1.0000000180025095e-35
decision_type=2 2 2
left_child=-1 2 -2
right_child=1 -3 -4
leaf_value=0.037815636565240965 0.022687883298803311 -0.072181493971672103 0.004439805265322342
leaf_weight=0.80269195465371046 0.92526324093341861 0.77455516788177181 1.0275205033831296
leaf_count=28 20 22 35
internal_value=3.80222e-09 -0.0111296 0.0130861
internal_weight=3.53003 2.72734 1.95278
internal_count=105 77 55
is_linear=0
shrinkage=0.1


Tree=99
num_leaves=4
num_cat=0
split_feature=12 5 4
split_gain=0.00642665 0.0222518 0.0171223
threshold=1.5000000000000002 1.0000000180025095e-35 1.0000000180025095e-35
decision_type=2 2 2
left_child=1 2 -1
right_child=-2 -3 -4
leaf_value=-0.00021266014949020891 0.0068829613455982999 0.0058660320212673466 -0.025439746687672085
leaf_weight=0.51301666069775886 0.96827797591686238 1.3359813676215706 0.56574611319229007
leaf_count=22 28 33 22
internal_value=-1.96469e-09 -0.00275997 -0.0134427
internal_weight=3.38302 2.41474 1.07876
internal_count=105 77 44
is_linear=0
shrinkage=0.1


end of trees

feature_importances:
position4=51
cat_count=45
bird_count=43
position0=31
position3=28
position5=26
dog_count=25
tiger_count=22
position1=5
position6=4
position7=4
position2=2

parameters:
[boosting: gbdt]
[objective: lambdarank]
[metric: ndcg]
[tree_learner: serial]
[device_type: cpu]
[data_sample_strategy: bagging]
[data: ]
[valid: ]
[num_iterations: 100]
[learning_rate: 0.1]
[num_leaves: 31]
[num_threads: 0]
[seed: 0]
[deterministic: 0]
[force_col_wise: 0]
[force_row_wise: 0]
[histogram_pool_size: -1]
[max_depth: -1]
[min_data_in_leaf: 20]
[min_sum_hessian_in_leaf: 0.001]
[bagging_fraction: 1]
[pos_bagging_fraction: 1]
[neg_bagging_fraction: 1]
[bagging_freq: 0]
[bagging_seed: 3]
[bagging_by_query: 0]
[feature_fraction: 1]
[feature_fraction_bynode: 1]
[feature_fraction_seed: 2]
[extra_trees: 0]
[extra_seed: 6]
[early_stopping_round: 0]
[early_stopping_min_delta: 0]
[first_metric_only: 0]
[max_delta_step: 0]
[lambda_l1: 0]
[lambda_l2: 0]
[linear_lambda: 0]
[min_gain_to_split: 0]
[drop_rate: 0.1]
[max_drop: 50]
[skip_drop: 0.5]
[xgboost_dart_mode: 0]
[uniform_drop: 0]
[drop_seed: 4]
[top_rate: 0.2]
[other_rate: 0.1]
[min_data_per_group: 100]
[max_cat_threshold: 32]
[cat_l2: 10]
[cat_smooth: 10]
[max_cat_to_onehot: 4]
[top_k: 20]
[monotone_constraints: ]
[monotone_constraints_method: basic]
[monotone_penalty: 0]
[feature_contri: ]
[forcedsplits_filename: ]
[refit_decay_rate: 0.9]
[cegb_tradeoff: 1]
[cegb_penalty_split: 0]
[cegb_penalty_feature_lazy: ]
[cegb_penalty_feature_coupled: ]
[path_smooth: 0]
[interaction_constraints: ]
[verbosity: 1]
[saved_feature_importance_type: 0]
[use_quantized_grad: 0]
[num_grad_quant_bins: 4]
[quant_train_renew_leaf: 0]
[stochastic_rounding: 1]
[linear_tree: 0]
[max_bin: 255]
[max_bin_by_feature: ]
[min_data_in_bin: 3]
[bin_construct_sample_cnt: 200000]
[data_random_seed: 1]
[is_enable_sparse: 1]
[enable_bundle: 1]
[use_missing: 1]
[zero_as_missing: 0]
[feature_pre_filter: 1]
[pre_partition: 0]
[two_round: 0]
[header: 0]
[label_column: ]
[weight_column: ]
[group_column: ]
[ignore_column: ]
[categorical_feature: ]
[forcedbins_filename: ]
[precise_float_parser: 0]
[parser_config_file: ]
[objective_seed: 5]
[num_class: 1]
[is_unbalance: 0]
[scale_pos_weight: 1]
[sigmoid: 1]
[boost_from_average: 1]
[reg_sqrt: 0]
[alpha: 0.9]
[fair_c: 1]
[poisson_max_delta_step: 0.7]
[tweedie_variance_power: 1.5]
[lambdarank_truncation_level: 30]
[lambdarank_norm: 1]
[label_gain: ]
[lambdarank_position_bias_regularization: 0]
[eval_at: 1,3,5]
[multi_error_top_k: 1]
[auc_mu_weights: ]
[num_machines: 1]
[local_listen_port: 12400]
[time_out: 120]
[machine_list_filename: ]
[machines: ]
[gpu_platform_id: -1]
[gpu_device_id: -1]
[gpu_use_dp: 0]
[num_gpu: 1]

end of parameters

pandas_categorical:[]
